<?xml version="1.0"?>
<opencv_storage>
<stage5>
  <maxWeakCount>6</maxWeakCount>
  <stageThreshold>-5.0398850440979004e-01</stageThreshold>
  <weakClassifiers>
    <_>
      <internalNodes>
        0 -1 68496 8.6853681132197380e-03</internalNodes>
      <leafValues>
        -2.3636363446712494e-01 8.1538462638854980e-01</leafValues></_>
    <_>
      <internalNodes>
        0 -1 64917 5.5637266486883163e-03</internalNodes>
      <leafValues>
        5.1473021507263184e-01 -7.5611567497253418e-01</leafValues></_>
    <_>
      <internalNodes>
        0 -1 5737 8.5351930465549231e-04</internalNodes>
      <leafValues>
        -4.7868469357490540e-01 7.4808818101882935e-01</leafValues></_>
    <_>
      <internalNodes>
        0 -1 70196 -7.4611762538552284e-03</internalNodes>
      <leafValues>
        8.8491582870483398e-01 -3.2764306664466858e-01</leafValues></_>
    <_>
      <internalNodes>
        0 -1 68623 3.0638892203569412e-03</internalNodes>
      <leafValues>
        -5.1891934871673584e-01 7.6184493303298950e-01</leafValues></_>
    <_>
      <internalNodes>
        0 -1 740 7.5944073614664376e-05</internalNodes>
      <leafValues>
        5.4289203882217407e-01 -7.0540392398834229e-01</leafValues></_></weakClassifiers></stage5>
</opencv_storage>
